digraph Tree {
node [shape=box] ;
0 [label="age_group <= 75.0\ngini = 0.067\nsamples = 6934\nvalue = [6693, 241]"] ;
1 [label="age_group <= 55.0\ngini = 0.038\nsamples = 6629\nvalue = [6502, 127]"] ;
0 -> 1 [labeldistance=2.5, labelangle=45, headlabel="True"] ;
2 [label="age_group <= 25.0\ngini = 0.009\nsamples = 5505\nvalue = [5481, 24]"] ;
1 -> 2 ;
3 [label="gini = 0.0\nsamples = 2391\nvalue = [2391, 0]"] ;
2 -> 3 ;
4 [label="hosp_yn <= 0.5\ngini = 0.015\nsamples = 3114\nvalue = [3090, 24]"] ;
2 -> 4 ;
5 [label="race_ethnicity_combined <= 1.5\ngini = 0.004\nsamples = 1648\nvalue = [1645, 3]"] ;
4 -> 5 ;
6 [label="race_ethnicity_combined <= 0.5\ngini = 0.005\nsamples = 1127\nvalue = [1124, 3]"] ;
5 -> 6 ;
7 [label="age_group <= 35.0\ngini = 0.005\nsamples = 426\nvalue = [425, 1]"] ;
6 -> 7 ;
8 [label="gini = 0.0\nsamples = 149\nvalue = [149, 0]"] ;
7 -> 8 ;
9 [label="age_group <= 45.0\ngini = 0.007\nsamples = 277\nvalue = [276, 1]"] ;
7 -> 9 ;
10 [label="gini = 0.013\nsamples = 149\nvalue = [148, 1]"] ;
9 -> 10 ;
11 [label="gini = 0.0\nsamples = 128\nvalue = [128, 0]"] ;
9 -> 11 ;
12 [label="age_group <= 35.0\ngini = 0.006\nsamples = 701\nvalue = [699, 2]"] ;
6 -> 12 ;
13 [label="gini = 0.009\nsamples = 234\nvalue = [233, 1]"] ;
12 -> 13 ;
14 [label="age_group <= 45.0\ngini = 0.004\nsamples = 467\nvalue = [466, 1]"] ;
12 -> 14 ;
15 [label="gini = 0.0\nsamples = 221\nvalue = [221, 0]"] ;
14 -> 15 ;
16 [label="gini = 0.008\nsamples = 246\nvalue = [245, 1]"] ;
14 -> 16 ;
17 [label="gini = 0.0\nsamples = 521\nvalue = [521, 0]"] ;
5 -> 17 ;
18 [label="hosp_yn <= 1.5\ngini = 0.028\nsamples = 1466\nvalue = [1445, 21]"] ;
4 -> 18 ;
19 [label="race_ethnicity_combined <= 1.5\ngini = 0.198\nsamples = 135\nvalue = [120, 15]"] ;
18 -> 19 ;
20 [label="race_ethnicity_combined <= 0.5\ngini = 0.117\nsamples = 80\nvalue = [75, 5]"] ;
19 -> 20 ;
21 [label="age_group <= 35.0\ngini = 0.18\nsamples = 40\nvalue = [36, 4]"] ;
20 -> 21 ;
22 [label="gini = 0.219\nsamples = 8\nvalue = [7, 1]"] ;
21 -> 22 ;
23 [label="age_group <= 45.0\ngini = 0.17\nsamples = 32\nvalue = [29, 3]"] ;
21 -> 23 ;
24 [label="gini = 0.18\nsamples = 10\nvalue = [9, 1]"] ;
23 -> 24 ;
25 [label="gini = 0.165\nsamples = 22\nvalue = [20, 2]"] ;
23 -> 25 ;
26 [label="age_group <= 45.0\ngini = 0.049\nsamples = 40\nvalue = [39, 1]"] ;
20 -> 26 ;
27 [label="gini = 0.0\nsamples = 18\nvalue = [18, 0]"] ;
26 -> 27 ;
28 [label="gini = 0.087\nsamples = 22\nvalue = [21, 1]"] ;
26 -> 28 ;
29 [label="race_ethnicity_combined <= 2.5\ngini = 0.298\nsamples = 55\nvalue = [45, 10]"] ;
19 -> 29 ;
30 [label="age_group <= 35.0\ngini = 0.444\nsamples = 21\nvalue = [14, 7]"] ;
29 -> 30 ;
31 [label="gini = 0.494\nsamples = 9\nvalue = [5, 4]"] ;
30 -> 31 ;
32 [label="age_group <= 45.0\ngini = 0.375\nsamples = 12\nvalue = [9, 3]"] ;
30 -> 32 ;
33 [label="gini = 0.32\nsamples = 5\nvalue = [4, 1]"] ;
32 -> 33 ;
34 [label="gini = 0.408\nsamples = 7\nvalue = [5, 2]"] ;
32 -> 34 ;
35 [label="age_group <= 45.0\ngini = 0.161\nsamples = 34\nvalue = [31, 3]"] ;
29 -> 35 ;
36 [label="race_ethnicity_combined <= 3.5\ngini = 0.245\nsamples = 14\nvalue = [12, 2]"] ;
35 -> 36 ;
37 [label="age_group <= 35.0\ngini = 0.32\nsamples = 10\nvalue = [8, 2]"] ;
36 -> 37 ;
38 [label="gini = 0.375\nsamples = 4\nvalue = [3, 1]"] ;
37 -> 38 ;
39 [label="gini = 0.278\nsamples = 6\nvalue = [5, 1]"] ;
37 -> 39 ;
40 [label="gini = 0.0\nsamples = 4\nvalue = [4, 0]"] ;
36 -> 40 ;
41 [label="race_ethnicity_combined <= 3.5\ngini = 0.095\nsamples = 20\nvalue = [19, 1]"] ;
35 -> 41 ;
42 [label="gini = 0.0\nsamples = 14\nvalue = [14, 0]"] ;
41 -> 42 ;
43 [label="race_ethnicity_combined <= 4.5\ngini = 0.278\nsamples = 6\nvalue = [5, 1]"] ;
41 -> 43 ;
44 [label="gini = 0.444\nsamples = 3\nvalue = [2, 1]"] ;
43 -> 44 ;
45 [label="gini = 0.0\nsamples = 3\nvalue = [3, 0]"] ;
43 -> 45 ;
46 [label="race_ethnicity_combined <= 1.5\ngini = 0.009\nsamples = 1331\nvalue = [1325, 6]"] ;
18 -> 46 ;
47 [label="age_group <= 35.0\ngini = 0.004\nsamples = 1120\nvalue = [1118, 2]"] ;
46 -> 47 ;
48 [label="gini = 0.0\nsamples = 400\nvalue = [400, 0]"] ;
47 -> 48 ;
49 [label="age_group <= 45.0\ngini = 0.006\nsamples = 720\nvalue = [718, 2]"] ;
47 -> 49 ;
50 [label="race_ethnicity_combined <= 0.5\ngini = 0.011\nsamples = 369\nvalue = [367, 2]"] ;
49 -> 50 ;
51 [label="gini = 0.014\nsamples = 288\nvalue = [286, 2]"] ;
50 -> 51 ;
52 [label="gini = 0.0\nsamples = 81\nvalue = [81, 0]"] ;
50 -> 52 ;
53 [label="gini = 0.0\nsamples = 351\nvalue = [351, 0]"] ;
49 -> 53 ;
54 [label="age_group <= 45.0\ngini = 0.037\nsamples = 211\nvalue = [207, 4]"] ;
46 -> 54 ;
55 [label="age_group <= 35.0\ngini = 0.012\nsamples = 159\nvalue = [158, 1]"] ;
54 -> 55 ;
56 [label="gini = 0.0\nsamples = 91\nvalue = [91, 0]"] ;
55 -> 56 ;
57 [label="race_ethnicity_combined <= 3.5\ngini = 0.029\nsamples = 68\nvalue = [67, 1]"] ;
55 -> 57 ;
58 [label="race_ethnicity_combined <= 2.5\ngini = 0.056\nsamples = 35\nvalue = [34, 1]"] ;
57 -> 58 ;
59 [label="gini = 0.0\nsamples = 21\nvalue = [21, 0]"] ;
58 -> 59 ;
60 [label="gini = 0.133\nsamples = 14\nvalue = [13, 1]"] ;
58 -> 60 ;
61 [label="gini = 0.0\nsamples = 33\nvalue = [33, 0]"] ;
57 -> 61 ;
62 [label="race_ethnicity_combined <= 3.5\ngini = 0.109\nsamples = 52\nvalue = [49, 3]"] ;
54 -> 62 ;
63 [label="race_ethnicity_combined <= 2.5\ngini = 0.161\nsamples = 34\nvalue = [31, 3]"] ;
62 -> 63 ;
64 [label="gini = 0.198\nsamples = 9\nvalue = [8, 1]"] ;
63 -> 64 ;
65 [label="gini = 0.147\nsamples = 25\nvalue = [23, 2]"] ;
63 -> 65 ;
66 [label="gini = 0.0\nsamples = 18\nvalue = [18, 0]"] ;
62 -> 66 ;
67 [label="hosp_yn <= 0.5\ngini = 0.166\nsamples = 1124\nvalue = [1021, 103]"] ;
1 -> 67 ;
68 [label="race_ethnicity_combined <= 1.5\ngini = 0.038\nsamples = 518\nvalue = [508, 10]"] ;
67 -> 68 ;
69 [label="age_group <= 65.0\ngini = 0.048\nsamples = 404\nvalue = [394, 10]"] ;
68 -> 69 ;
70 [label="race_ethnicity_combined <= 0.5\ngini = 0.037\nsamples = 264\nvalue = [259, 5]"] ;
69 -> 70 ;
71 [label="gini = 0.049\nsamples = 80\nvalue = [78, 2]"] ;
70 -> 71 ;
72 [label="gini = 0.032\nsamples = 184\nvalue = [181, 3]"] ;
70 -> 72 ;
73 [label="race_ethnicity_combined <= 0.5\ngini = 0.069\nsamples = 140\nvalue = [135, 5]"] ;
69 -> 73 ;
74 [label="gini = 0.042\nsamples = 47\nvalue = [46, 1]"] ;
73 -> 74 ;
75 [label="gini = 0.082\nsamples = 93\nvalue = [89, 4]"] ;
73 -> 75 ;
76 [label="gini = 0.0\nsamples = 114\nvalue = [114, 0]"] ;
68 -> 76 ;
77 [label="hosp_yn <= 1.5\ngini = 0.26\nsamples = 606\nvalue = [513, 93]"] ;
67 -> 77 ;
78 [label="age_group <= 65.0\ngini = 0.456\nsamples = 222\nvalue = [144, 78]"] ;
77 -> 78 ;
79 [label="race_ethnicity_combined <= 0.5\ngini = 0.421\nsamples = 113\nvalue = [79, 34]"] ;
78 -> 79 ;
80 [label="gini = 0.476\nsamples = 23\nvalue = [14, 9]"] ;
79 -> 80 ;
81 [label="race_ethnicity_combined <= 3.5\ngini = 0.401\nsamples = 90\nvalue = [65, 25]"] ;
79 -> 81 ;
82 [label="race_ethnicity_combined <= 2.5\ngini = 0.387\nsamples = 80\nvalue = [59, 21]"] ;
81 -> 82 ;
83 [label="race_ethnicity_combined <= 1.5\ngini = 0.412\nsamples = 69\nvalue = [49, 20]"] ;
82 -> 83 ;
84 [label="gini = 0.39\nsamples = 49\nvalue = [36, 13]"] ;
83 -> 84 ;
85 [label="gini = 0.455\nsamples = 20\nvalue = [13, 7]"] ;
83 -> 85 ;
86 [label="gini = 0.165\nsamples = 11\nvalue = [10, 1]"] ;
82 -> 86 ;
87 [label="race_ethnicity_combined <= 5.5\ngini = 0.48\nsamples = 10\nvalue = [6, 4]"] ;
81 -> 87 ;
88 [label="race_ethnicity_combined <= 4.5\ngini = 0.5\nsamples = 8\nvalue = [4, 4]"] ;
87 -> 88 ;
89 [label="gini = 0.5\nsamples = 6\nvalue = [3, 3]"] ;
88 -> 89 ;
90 [label="gini = 0.5\nsamples = 2\nvalue = [1, 1]"] ;
88 -> 90 ;
91 [label="gini = 0.0\nsamples = 2\nvalue = [2, 0]"] ;
87 -> 91 ;
92 [label="race_ethnicity_combined <= 6.5\ngini = 0.481\nsamples = 109\nvalue = [65, 44]"] ;
78 -> 92 ;
93 [label="race_ethnicity_combined <= 5.5\ngini = 0.479\nsamples = 108\nvalue = [65, 43]"] ;
92 -> 93 ;
94 [label="race_ethnicity_combined <= 3.5\ngini = 0.481\nsamples = 107\nvalue = [64, 43]"] ;
93 -> 94 ;
95 [label="race_ethnicity_combined <= 1.5\ngini = 0.476\nsamples = 100\nvalue = [61, 39]"] ;
94 -> 95 ;
96 [label="race_ethnicity_combined <= 0.5\ngini = 0.47\nsamples = 74\nvalue = [46, 28]"] ;
95 -> 96 ;
97 [label="gini = 0.475\nsamples = 18\nvalue = [11, 7]"] ;
96 -> 97 ;
98 [label="gini = 0.469\nsamples = 56\nvalue = [35, 21]"] ;
96 -> 98 ;
99 [label="race_ethnicity_combined <= 2.5\ngini = 0.488\nsamples = 26\nvalue = [15, 11]"] ;
95 -> 99 ;
100 [label="gini = 0.494\nsamples = 9\nvalue = [4, 5]"] ;
99 -> 100 ;
101 [label="gini = 0.457\nsamples = 17\nvalue = [11, 6]"] ;
99 -> 101 ;
102 [label="race_ethnicity_combined <= 4.5\ngini = 0.49\nsamples = 7\nvalue = [3, 4]"] ;
94 -> 102 ;
103 [label="gini = 0.0\nsamples = 2\nvalue = [0, 2]"] ;
102 -> 103 ;
104 [label="gini = 0.48\nsamples = 5\nvalue = [3, 2]"] ;
102 -> 104 ;
105 [label="gini = 0.0\nsamples = 1\nvalue = [1, 0]"] ;
93 -> 105 ;
106 [label="gini = 0.0\nsamples = 1\nvalue = [0, 1]"] ;
92 -> 106 ;
107 [label="age_group <= 65.0\ngini = 0.075\nsamples = 384\nvalue = [369, 15]"] ;
77 -> 107 ;
108 [label="race_ethnicity_combined <= 0.5\ngini = 0.038\nsamples = 259\nvalue = [254, 5]"] ;
107 -> 108 ;
109 [label="gini = 0.012\nsamples = 163\nvalue = [162, 1]"] ;
108 -> 109 ;
110 [label="race_ethnicity_combined <= 4.5\ngini = 0.08\nsamples = 96\nvalue = [92, 4]"] ;
108 -> 110 ;
111 [label="race_ethnicity_combined <= 3.5\ngini = 0.087\nsamples = 88\nvalue = [84, 4]"] ;
110 -> 111 ;
112 [label="race_ethnicity_combined <= 1.5\ngini = 0.077\nsamples = 75\nvalue = [72, 3]"] ;
111 -> 112 ;
113 [label="gini = 0.091\nsamples = 63\nvalue = [60, 3]"] ;
112 -> 113 ;
114 [label="gini = 0.0\nsamples = 12\nvalue = [12, 0]"] ;
112 -> 114 ;
115 [label="gini = 0.142\nsamples = 13\nvalue = [12, 1]"] ;
111 -> 115 ;
116 [label="gini = 0.0\nsamples = 8\nvalue = [8, 0]"] ;
110 -> 116 ;
117 [label="race_ethnicity_combined <= 0.5\ngini = 0.147\nsamples = 125\nvalue = [115, 10]"] ;
107 -> 117 ;
118 [label="gini = 0.086\nsamples = 67\nvalue = [64, 3]"] ;
117 -> 118 ;
119 [label="race_ethnicity_combined <= 3.5\ngini = 0.212\nsamples = 58\nvalue = [51, 7]"] ;
117 -> 119 ;
120 [label="race_ethnicity_combined <= 2.5\ngini = 0.258\nsamples = 46\nvalue = [39, 7]"] ;
119 -> 120 ;
121 [label="race_ethnicity_combined <= 1.5\ngini = 0.219\nsamples = 40\nvalue = [35, 5]"] ;
120 -> 121 ;
122 [label="gini = 0.224\nsamples = 39\nvalue = [34, 5]"] ;
121 -> 122 ;
123 [label="gini = 0.0\nsamples = 1\nvalue = [1, 0]"] ;
121 -> 123 ;
124 [label="gini = 0.444\nsamples = 6\nvalue = [4, 2]"] ;
120 -> 124 ;
125 [label="gini = 0.0\nsamples = 12\nvalue = [12, 0]"] ;
119 -> 125 ;
126 [label="hosp_yn <= 0.5\ngini = 0.468\nsamples = 305\nvalue = [191, 114]"] ;
0 -> 126 [labeldistance=2.5, labelangle=-45, headlabel="False"] ;
127 [label="race_ethnicity_combined <= 1.5\ngini = 0.354\nsamples = 100\nvalue = [77, 23]"] ;
126 -> 127 ;
128 [label="race_ethnicity_combined <= 0.5\ngini = 0.387\nsamples = 84\nvalue = [62, 22]"] ;
127 -> 128 ;
129 [label="gini = 0.401\nsamples = 18\nvalue = [13, 5]"] ;
128 -> 129 ;
130 [label="gini = 0.382\nsamples = 66\nvalue = [49, 17]"] ;
128 -> 130 ;
131 [label="race_ethnicity_combined <= 3.5\ngini = 0.117\nsamples = 16\nvalue = [15, 1]"] ;
127 -> 131 ;
132 [label="gini = 0.0\nsamples = 9\nvalue = [9, 0]"] ;
131 -> 132 ;
133 [label="gini = 0.245\nsamples = 7\nvalue = [6, 1]"] ;
131 -> 133 ;
134 [label="hosp_yn <= 1.5\ngini = 0.494\nsamples = 205\nvalue = [114, 91]"] ;
126 -> 134 ;
135 [label="race_ethnicity_combined <= 4.5\ngini = 0.492\nsamples = 101\nvalue = [44, 57]"] ;
134 -> 135 ;
136 [label="race_ethnicity_combined <= 2.5\ngini = 0.494\nsamples = 99\nvalue = [44, 55]"] ;
135 -> 136 ;
137 [label="race_ethnicity_combined <= 1.5\ngini = 0.492\nsamples = 85\nvalue = [37, 48]"] ;
136 -> 137 ;
138 [label="race_ethnicity_combined <= 0.5\ngini = 0.493\nsamples = 77\nvalue = [34, 43]"] ;
137 -> 138 ;
139 [label="gini = 0.498\nsamples = 17\nvalue = [8, 9]"] ;
138 -> 139 ;
140 [label="gini = 0.491\nsamples = 60\nvalue = [26, 34]"] ;
138 -> 140 ;
141 [label="gini = 0.469\nsamples = 8\nvalue = [3, 5]"] ;
137 -> 141 ;
142 [label="race_ethnicity_combined <= 3.5\ngini = 0.5\nsamples = 14\nvalue = [7, 7]"] ;
136 -> 142 ;
143 [label="gini = 0.5\nsamples = 6\nvalue = [3, 3]"] ;
142 -> 143 ;
144 [label="gini = 0.5\nsamples = 8\nvalue = [4, 4]"] ;
142 -> 144 ;
145 [label="gini = 0.0\nsamples = 2\nvalue = [0, 2]"] ;
135 -> 145 ;
146 [label="race_ethnicity_combined <= 0.5\ngini = 0.44\nsamples = 104\nvalue = [70, 34]"] ;
134 -> 146 ;
147 [label="gini = 0.273\nsamples = 43\nvalue = [36, 7]"] ;
146 -> 147 ;
148 [label="race_ethnicity_combined <= 3.5\ngini = 0.493\nsamples = 61\nvalue = [34, 27]"] ;
146 -> 148 ;
149 [label="race_ethnicity_combined <= 2.5\ngini = 0.492\nsamples = 57\nvalue = [32, 25]"] ;
148 -> 149 ;
150 [label="race_ethnicity_combined <= 1.5\ngini = 0.495\nsamples = 49\nvalue = [27, 22]"] ;
149 -> 150 ;
151 [label="gini = 0.492\nsamples = 48\nvalue = [27, 21]"] ;
150 -> 151 ;
152 [label="gini = 0.0\nsamples = 1\nvalue = [0, 1]"] ;
150 -> 152 ;
153 [label="gini = 0.469\nsamples = 8\nvalue = [5, 3]"] ;
149 -> 153 ;
154 [label="race_ethnicity_combined <= 4.5\ngini = 0.5\nsamples = 4\nvalue = [2, 2]"] ;
148 -> 154 ;
155 [label="gini = 0.5\nsamples = 2\nvalue = [1, 1]"] ;
154 -> 155 ;
156 [label="gini = 0.5\nsamples = 2\nvalue = [1, 1]"] ;
154 -> 156 ;
}